<?xml version="1.0" encoding="UTF-8"?>
<!-- This network was created in GeNIe Academic, which can be used for academic teaching and research purposes only -->
<smile version="1.0" id="WSN_Attack_Detector_5States_FromDataset" numsamples="20000" discsamples="20000">
	<nodes>
		<cpt id="TOPOLOGIA">
			<state id="N36" />
			<state id="N49" />
			<state id="N64" />
			<state id="N100" />
			<probabilities>0.25 0.25 0.25 0.25</probabilities>
		</cpt>
		<cpt id="TIPO_DE_ATAQUE">
			<state id="Backoff" />
			<state id="Blackhole" />
			<state id="Flooding" />
			<state id="Normal" />
			<state id="Wormhole" />
			<parents>TOPOLOGIA</parents>
			<probabilities>0.2 0.2 0.2 0.2 0.2 0.2 0.2 0.2 0.2 0.2 0.2 0.2 0.2 0.2 0.2 0.2 0.2 0.2 0.2 0.2</probabilities>
		</cpt>
		<cpt id="PDR">
			<state id="VeryLow" />
			<state id="Low" />
			<state id="Medium" />
			<state id="High" />
			<state id="VeryHigh" />
			<parents>TOPOLOGIA TIPO_DE_ATAQUE</parents>
			<probabilities>0.000995 0.01194 0.049751 0.625871 0.311443 0.928358 0.045771 0.023881 0.000995 0.000995 0.000995 0.01393 0.054726 0.914428 0.01592 0.000995 0.00199 0.024876 0.044776 0.927363 0.000995 0.034826 0.681592 0.280597 0.00199 0.000995 0.022886 0.353234 0.61791 0.004975 0.368159 0.59204 0.035821 0.002985 0.000995 0.000995 0.129353 0.849751 0.018905 0.000995 0.000995 0.00199 0.023881 0.047761 0.925373 0.000995 0.760199 0.224876 0.012935 0.000995 0.000995 0.21592 0.7572140000000001 0.024876 0.000995 0.000995 0.027861 0.638806 0.331343 0.000995 0.01393 0.925373 0.052736 0.006965 0.000995 0.000995 0.002985 0.037811 0.064677 0.893532 0.694527 0.272637 0.030846 0.000995 0.000995 0.126368 0.821891 0.045771 0.004975 0.000995 0.000995 0.0199 0.039801 0.876617 0.06268700000000001 0.935323 0.043781 0.018905 0.000995 0.000995 0.000995 0.002985 0.029851 0.120398 0.8457710000000001 0.920398 0.051741 0.025871 0.000995 0.000995</probabilities>
		</cpt>
		<cpt id="DELAY">
			<state id="VeryLow" />
			<state id="Low" />
			<state id="Medium" />
			<state id="High" />
			<state id="VeryHigh" />
			<parents>TOPOLOGIA TIPO_DE_ATAQUE</parents>
			<probabilities>0.000995 0.006965 0.775124 0.208955 0.00796 0.514428 0.40398 0.046766 0.026866 0.00796 0.066667 0.585075 0.306468 0.036816 0.004975 0.926368 0.023881 0.022886 0.020896 0.00597 0.444776 0.483582 0.042786 0.021891 0.006965 0.000995 0.000995 0.048756 0.912438 0.036816 0.40597 0.523383 0.039801 0.024876 0.00597 0.000995 0.000995 0.503483 0.480597 0.01393 0.924378 0.021891 0.032836 0.016915 0.00398 0.024876 0.444776 0.495522 0.029851 0.004975 0.000995 0.000995 0.000995 0.148259 0.848756 0.085572 0.644776 0.232836 0.030846 0.00597 0.000995 0.000995 0.01393 0.909453 0.074627 0.573134 0.353234 0.036816 0.027861 0.008954999999999999 0.000995 0.000995 0.028856 0.932338 0.036816 0.000995 0.000995 0.000995 0.01592 0.9810950000000001 0.008954999999999999 0.162189 0.7711440000000001 0.041791 0.01592 0.000995 0.000995 0.000995 0.00398 0.993035 0.01592 0.338308 0.59801 0.039801 0.00796 0.000995 0.000995 0.000995 0.06965200000000001 0.927363</probabilities>
		</cpt>
		<cpt id="THROUGHPUT">
			<state id="VeryLow" />
			<state id="Low" />
			<state id="Medium" />
			<state id="High" />
			<state id="VeryHigh" />
			<parents>TOPOLOGIA TIPO_DE_ATAQUE</parents>
			<probabilities>0.000995 0.059701 0.484577 0.443781 0.010945 0.944279 0.034826 0.00398 0.00796 0.008954999999999999 0.000995 0.2199 0.690547 0.076617 0.01194 0.000995 0.014925 0.121393 0.835821 0.026866 0.01393 0.851741 0.09651700000000001 0.016915 0.020896 0.000995 0.037811 0.362189 0.58408 0.014925 0.799005 0.171144 0.014925 0.01194 0.002985 0.00199 0.265672 0.693532 0.028856 0.009950000000000001 0.000995 0.000995 0.014925 0.301493 0.681592 0.049751 0.908458 0.026866 0.00796 0.006965 0.000995 0.029851 0.277612 0.674627 0.016915 0.000995 0.004975 0.041791 0.741294 0.210945 0.00398 0.552239 0.40796 0.01791 0.01791 0.000995 0.000995 0.00597 0.041791 0.950249 0.475622 0.483582 0.01791 0.012935 0.009950000000000001 0.00199 0.124378 0.704478 0.147264 0.021891 0.000995 0.000995 0.000995 0.025871 0.971144 0.783085 0.185075 0.016915 0.009950000000000001 0.004975 0.000995 0.000995 0.000995 0.00398 0.993035 0.916418 0.051741 0.01592 0.008954999999999999 0.006965</probabilities>
		</cpt>
		<cpt id="ENERGIA">
			<state id="VeryLow" />
			<state id="Low" />
			<state id="Medium" />
			<state id="High" />
			<state id="VeryHigh" />
			<parents>TOPOLOGIA TIPO_DE_ATAQUE</parents>
			<probabilities>0.261692 0.591045 0.103483 0.037811 0.00597 0.641791 0.286567 0.038806 0.021891 0.010945 0.030846 0.39801 0.523383 0.042786 0.004975 0.954229 0.014925 0.01194 0.01791 0.000995 0.372139 0.521393 0.07562199999999999 0.023881 0.006965 0.00796 0.090547 0.660697 0.231841 0.008954999999999999 0.21393 0.5124379999999999 0.240796 0.024876 0.00796 0.000995 0.00199 0.090547 0.887562 0.018905 0.9064680000000001 0.050746 0.025871 0.010945 0.00597 0.002985 0.040796 0.502488 0.443781 0.009950000000000001 0.000995 0.002985 0.068657 0.901493 0.025871 0.149254 0.608955 0.2 0.035821 0.00597 0.000995 0.000995 0.002985 0.193035 0.80199 0.427861 0.485572 0.041791 0.034826 0.009950000000000001 0.000995 0.000995 0.01791 0.756219 0.223881 0.000995 0.000995 0.00199 0.106468 0.889552 0.01194 0.183085 0.704478 0.08258699999999999 0.01791 0.000995 0.000995 0.000995 0.00398 0.993035 0.01194 0.20597 0.686567 0.088557 0.006965 0.000995 0.000995 0.000995 0.053731 0.943284</probabilities>
		</cpt>
	</nodes>
	<extensions>
		<genie version="1.0" app="GeNIe 5.0.4830.0 ACADEMIC" name="WSN_Attack_Detector_5States_FromDataset">
			<node id="TOPOLOGIA">
				<name>TOPOLOGIA</name>
				<interior color="e5f6f7" />
				<outline color="000080" />
				<font color="000000" name="Arial" size="10" />
				<position>865 250 1005 320</position>
				<barchart active="true" width="128" height="100" />
			</node>
			<node id="TIPO_DE_ATAQUE">
				<name>TIPO_DE_ATAQUE</name>
				<interior color="e5f6f7" />
				<outline color="000080" />
				<font color="000000" name="Arial" size="10" />
				<position>9 253 199 323</position>
				<barchart active="true" width="128" height="120" />
			</node>
			<node id="PDR">
				<name>PDR</name>
				<interior color="e5f6f7" />
				<outline color="000080" />
				<font color="000000" name="Arial" size="10" />
				<position>450 32 600 102</position>
				<barchart active="true" width="128" height="120" />
			</node>
			<node id="DELAY">
				<name>DELAY</name>
				<interior color="e5f6f7" />
				<outline color="000080" />
				<font color="000000" name="Arial" size="10" />
				<position>440 172 590 242</position>
				<barchart active="true" width="128" height="120" />
			</node>
			<node id="THROUGHPUT">
				<name>THROUGHPUT</name>
				<interior color="e5f6f7" />
				<outline color="000080" />
				<font color="000000" name="Arial" size="10" />
				<position>415 346 615 416</position>
				<barchart active="true" width="128" height="120" />
			</node>
			<node id="ENERGIA">
				<name>ENERGIA</name>
				<interior color="e5f6f7" />
				<outline color="000080" />
				<font color="000000" name="Arial" size="10" />
				<position>431 507 591 577</position>
				<barchart active="true" width="128" height="120" />
			</node>
		</genie>
	</extensions>
</smile>
